digraph Tree {
node [shape=box, style="rounded", color="black", fontname=helvetica] ;
edge [fontname=helvetica] ;
0 [label="('WFPS_0.05', '-') <= 41.9\nmse = 2.0\nsamples = 1201\nvalue = 0.8"] ;
1 [label="('TS_0.05', '-') <= 29.5\nmse = 0.3\nsamples = 676\nvalue = 0.3"] ;
0 -> 1 [labeldistance=2.5, labelangle=45, headlabel="True"] ;
2 [label="('WFPS_0.05', '-') <= 36.8\nmse = 0.3\nsamples = 559\nvalue = 0.4"] ;
1 -> 2 ;
3 [label="('TS_0.05', '-') <= 25.9\nmse = 0.2\nsamples = 257\nvalue = 0.2"] ;
2 -> 3 ;
4 [label="mse = 0.2\nsamples = 186\nvalue = 0.3"] ;
3 -> 4 ;
5 [label="mse = 0.2\nsamples = 71\nvalue = 0.1"] ;
3 -> 5 ;
6 [label="('TS_0.05', '-') <= 28.2\nmse = 0.4\nsamples = 302\nvalue = 0.5"] ;
2 -> 6 ;
7 [label="mse = 0.2\nsamples = 272\nvalue = 0.4"] ;
6 -> 7 ;
8 [label="mse = 2.3\nsamples = 30\nvalue = 1.0"] ;
6 -> 8 ;
9 [label="('WFPS_0.05', '-') <= 38.4\nmse = 0.2\nsamples = 117\nvalue = -0.0"] ;
1 -> 9 ;
10 [label="('TS_0.05', '-') <= 31.8\nmse = 0.1\nsamples = 105\nvalue = -0.1"] ;
9 -> 10 ;
11 [label="mse = 0.1\nsamples = 44\nvalue = 0.0"] ;
10 -> 11 ;
12 [label="mse = 0.1\nsamples = 61\nvalue = -0.2"] ;
10 -> 12 ;
13 [label="('WFPS_0.05', '-') <= 38.4\nmse = 0.0\nsamples = 12\nvalue = 0.4"] ;
9 -> 13 ;
14 [label="mse = -0.0\nsamples = 1\nvalue = 0.6"] ;
13 -> 14 ;
15 [label="mse = 0.0\nsamples = 11\nvalue = 0.4"] ;
13 -> 15 ;
16 [label="('WFPS_0.05', '-') <= 51.9\nmse = 3.2\nsamples = 525\nvalue = 1.5"] ;
0 -> 16 [labeldistance=2.5, labelangle=-45, headlabel="False"] ;
17 [label="('WFPS_0.05', '-') <= 48.1\nmse = 4.8\nsamples = 315\nvalue = 1.9"] ;
16 -> 17 ;
18 [label="('TS_0.05', '-') <= 21.5\nmse = 2.3\nsamples = 225\nvalue = 1.4"] ;
17 -> 18 ;
19 [label="mse = 3.0\nsamples = 151\nvalue = 1.8"] ;
18 -> 19 ;
20 [label="mse = 0.4\nsamples = 74\nvalue = 0.7"] ;
18 -> 20 ;
21 [label="('TS_0.05', '-') <= 18.4\nmse = 9.4\nsamples = 90\nvalue = 3.3"] ;
17 -> 21 ;
22 [label="mse = 8.5\nsamples = 63\nvalue = 2.4"] ;
21 -> 22 ;
23 [label="mse = 6.0\nsamples = 27\nvalue = 5.2"] ;
21 -> 23 ;
24 [label="('TS_0.05', '-') <= 16.8\nmse = 0.4\nsamples = 210\nvalue = 1.0"] ;
16 -> 24 ;
25 [label="('WFPS_0.05', '-') <= 53.7\nmse = 0.3\nsamples = 208\nvalue = 1.0"] ;
24 -> 25 ;
26 [label="mse = 0.3\nsamples = 102\nvalue = 0.8"] ;
25 -> 26 ;
27 [label="mse = 0.4\nsamples = 106\nvalue = 1.2"] ;
25 -> 27 ;
28 [label="('WFPS_0.05', '-') <= 52.1\nmse = 0.1\nsamples = 2\nvalue = 3.4"] ;
24 -> 28 ;
29 [label="mse = 0.0\nsamples = 1\nvalue = 3.2"] ;
28 -> 29 ;
30 [label="mse = 0.0\nsamples = 1\nvalue = 3.9"] ;
28 -> 30 ;
}